<?xml version="1.0"?>
<opencv_storage>
<stage3>
  <maxWeakCount>5</maxWeakCount>
  <stageThreshold>-1.3998831510543823e+00</stageThreshold>
  <weakClassifiers>
    <_>
      <internalNodes>
        0 -1 1093 -5.9365403652191162e-01</internalNodes>
      <leafValues>
        -5.4022985696792603e-01 8.8405799865722656e-01</leafValues></_>
    <_>
      <internalNodes>
        0 -1 162224 -1.4485828578472137e-02</internalNodes>
      <leafValues>
        -3.5908213257789612e-01 8.1668764352798462e-01</leafValues></_>
    <_>
      <internalNodes>
        0 -1 14179 -1.4315995573997498e-01</internalNodes>
      <leafValues>
        -6.9225686788558960e-01 5.0944864749908447e-01</leafValues></_>
    <_>
      <internalNodes>
        0 -1 82149 1.4665685594081879e-02</internalNodes>
      <leafValues>
        -4.9079984426498413e-01 7.3831254243850708e-01</leafValues></_>
    <_>
      <internalNodes>
        0 -1 161373 -1.3545127585530281e-03</internalNodes>
      <leafValues>
        4.5753401517868042e-01 -5.4662680625915527e-01</leafValues></_></weakClassifiers></stage3>
</opencv_storage>
