<?xml version="1.0"?>
<opencv_storage>
<stage6>
  <maxWeakCount>7</maxWeakCount>
  <stageThreshold>-7.9805022478103638e-01</stageThreshold>
  <weakClassifiers>
    <_>
      <internalNodes>
        0 -1 99208 2.1597612649202347e-02</internalNodes>
      <leafValues>
        -3.4759357571601868e-01 8.1749051809310913e-01</leafValues></_>
    <_>
      <internalNodes>
        0 -1 161765 -2.1815864602103829e-04</internalNodes>
      <leafValues>
        4.9790501594543457e-01 -5.7308667898178101e-01</leafValues></_>
    <_>
      <internalNodes>
        0 -1 486 -1.4787865802645683e-03</internalNodes>
      <leafValues>
        -6.3484525680541992e-01 3.7740761041641235e-01</leafValues></_>
    <_>
      <internalNodes>
        0 -1 124331 -3.1603444367647171e-03</internalNodes>
      <leafValues>
        5.3833401203155518e-01 -4.9563270807266235e-01</leafValues></_>
    <_>
      <internalNodes>
        0 -1 107548 -9.8343744874000549e-02</internalNodes>
      <leafValues>
        3.0531135201454163e-01 -7.4659103155136108e-01</leafValues></_>
    <_>
      <internalNodes>
        0 -1 2260 -3.0455009546130896e-03</internalNodes>
      <leafValues>
        5.1350373029708862e-01 -5.2160459756851196e-01</leafValues></_>
    <_>
      <internalNodes>
        0 -1 1110 -6.7031418439000845e-05</internalNodes>
      <leafValues>
        -5.3640949726104736e-01 4.3805906176567078e-01</leafValues></_></weakClassifiers></stage6>
</opencv_storage>
